<?xml version="1.0"?>
<opencv_storage>
<cascade>
  <stageType>BOOST</stageType>
  <featureType>HAAR</featureType>
  <height>24</height>
  <width>36</width>
  <stageParams>
    <boostType>GAB</boostType>
    <minHitRate>9.9500000476837158e-01</minHitRate>
    <maxFalseAlarm>5.0000000000000000e-01</maxFalseAlarm>
    <weightTrimRate>9.4999998807907104e-01</weightTrimRate>
    <maxDepth>1</maxDepth>
    <maxWeakCount>100</maxWeakCount></stageParams>
  <featureParams>
    <maxCatCount>0</maxCatCount>
    <featSize>1</featSize>
    <mode>BASIC</mode></featureParams>
  <stageNum>15</stageNum>
  <stages>
    <!-- stage 0 -->
    <_>
      <maxWeakCount>6</maxWeakCount>
      <stageThreshold>-1.4966207742691040e+00</stageThreshold>
      <weakClassifiers>
        <_>
          <internalNodes>
            0 -1 126 -6.8608313798904419e-02</internalNodes>
          <leafValues>
            6.2500000000000000e-01 -7.6556777954101563e-01</leafValues></_>
        <_>
          <internalNodes>
            0 -1 92 -4.1132806800305843e-03</internalNodes>
          <leafValues>
            1.4843815565109253e-01 -6.4566963911056519e-01</leafValues></_>
        <_>
          <internalNodes>
            0 -1 91 3.6603515036404133e-03</internalNodes>
          <leafValues>
            -2.6402467489242554e-01 6.4658117294311523e-01</leafValues></_>
        <_>
          <internalNodes>
            0 -1 81 1.3068371918052435e-03</internalNodes>
          <leafValues>
            -4.2498049139976501e-01 3.4462711215019226e-01</leafValues></_>
        <_>
          <internalNodes>
            0 -1 51 -1.8277228809893131e-03</internalNodes>
          <leafValues>
            5.8034718036651611e-01 -2.3778019845485687e-01</leafValues></_>
        <_>
          <internalNodes>
            0 -1 10 3.2538309693336487e-02</internalNodes>
          <leafValues>
            2.3180852830410004e-01 -7.7083313465118408e-01</leafValues></_></weakClassifiers></_>
    <!-- stage 1 -->
    <_>
      <maxWeakCount>6</maxWeakCount>
      <stageThreshold>-1.4872894287109375e+00</stageThreshold>
      <weakClassifiers>
        <_>
          <internalNodes>
            0 -1 64 6.9698065519332886e-02</internalNodes>
          <leafValues>
            -7.5510203838348389e-01 9.4117647409439087e-01</leafValues></_>
        <_>
          <internalNodes>
            0 -1 132 -2.8683127311524004e-05</internalNodes>
          <leafValues>
            -7.4863183498382568e-01 1.0406205803155899e-01</leafValues></_>
        <_>
          <internalNodes>
            0 -1 23 -1.5319610247388482e-04</internalNodes>
          <leafValues>
            -5.7348942756652832e-01 2.9262250661849976e-01</leafValues></_>
        <_>
          <internalNodes>
            0 -1 33 -1.2381710985209793e-04</internalNodes>
          <leafValues>
            -6.3750576972961426e-01 2.7634406089782715e-01</leafValues></_>
        <_>
          <internalNodes>
            0 -1 95 -1.4542386867105961e-02</internalNodes>
          <leafValues>
            -8.0504727363586426e-01 2.1387878060340881e-01</leafValues></_>
        <_>
          <internalNodes>
            0 -1 133 1.3938802294433117e-04</internalNodes>
          <leafValues>
            2.6594319939613342e-01 -5.9903848171234131e-01</leafValues></_></weakClassifiers></_>
    <!-- stage 2 -->
    <_>
      <maxWeakCount>9</maxWeakCount>
      <stageThreshold>-1.2147039175033569e+00</stageThreshold>
      <weakClassifiers>
        <_>
          <internalNodes>
            0 -1 115 1.3009014725685120e-01</internalNodes>
          <leafValues>
            -7.5089818239212036e-01 9.3750000000000000e-01</leafValues></_>
        <_>
          <internalNodes>
            0 -1 137 -1.8934988474939018e-05</internalNodes>
          <leafValues>
            -7.4663287401199341e-01 6.1765093356370926e-02</leafValues></_>
        <_>
          <internalNodes>
            0 -1 135 -6.2894227448850870e-04</internalNodes>
          <leafValues>
            -6.9649738073348999e-01 2.3203875124454498e-01</leafValues></_>
        <_>
          <internalNodes>
            0 -1 26 1.8608596292324364e-05</internalNodes>
          <leafValues>
            3.0497995018959045e-01 -5.2937340736389160e-01</leafValues></_>
        <_>
          <internalNodes>
            0 -1 35 -2.2263109713094309e-05</internalNodes>
          <leafValues>
            -5.4873901605606079e-01 2.5035408139228821e-01</leafValues></_>
        <_>
          <internalNodes>
            0 -1 36 5.1801446825265884e-03</internalNodes>
          <leafValues>
            -2.0863635838031769e-01 6.6136544942855835e-01</leafValues></_>
        <_>
          <internalNodes>
            0 -1 131 -1.1998592526651919e-05</internalNodes>
          <leafValues>
            -5.4324954748153687e-01 3.0627828836441040e-01</leafValues></_>
        <_>
          <internalNodes>
            0 -1 40 -2.2228984162211418e-03</internalNodes>
          <leafValues>
            5.1755952835083008e-01 -2.5686135888099670e-01</leafValues></_>
        <_>
          <internalNodes>
            0 -1 61 4.5669469982385635e-03</internalNodes>
          <leafValues>
            -2.2518813610076904e-01 6.4242428541183472e-01</leafValues></_></weakClassifiers></_>
    <!-- stage 3 -->
    <_>
      <maxWeakCount>9</maxWeakCount>
      <stageThreshold>-1.7704337835311890e+00</stageThreshold>
      <weakClassifiers>
        <_>
          <internalNodes>
            0 -1 5 4.4077910482883453e-02</internalNodes>
          <leafValues>
            -7.5728154182434082e-01 6.2790697813034058e-01</leafValues></_>
        <_>
          <internalNodes>
            0 -1 41 8.0803796648979187e-02</internalNodes>
          <leafValues>
            -3.9352104067802429e-01 5.9057825803756714e-01</leafValues></_>
        <_>
          <internalNodes>
            0 -1 34 -5.7510770857334137e-03</internalNodes>
          <leafValues>
            -7.9327148199081421e-01 1.5516325831413269e-01</leafValues></_>
        <_>
          <internalNodes>
            0 -1 116 7.6171085238456726e-03</internalNodes>
          <leafValues>
            -3.2254567742347717e-01 4.0798309445381165e-01</leafValues></_>
        <_>
          <internalNodes>
            0 -1 109 8.0720295954961330e-05</internalNodes>
          <leafValues>
            -4.3955042958259583e-01 3.0726510286331177e-01</leafValues></_>
        <_>
          <internalNodes>
            0 -1 60 9.4762798398733139e-03</internalNodes>
          <leafValues>
            -2.3341540992259979e-01 5.4570817947387695e-01</leafValues></_>
        <_>
          <internalNodes>
            0 -1 125 3.3904754673130810e-05</internalNodes>
          <leafValues>
            2.4742491543292999e-01 -5.1830607652664185e-01</leafValues></_>
        <_>
          <internalNodes>
            0 -1 67 -1.9218602392356843e-04</internalNodes>
          <leafValues>
            3.0982449650764465e-01 -3.9279654622077942e-01</leafValues></_>
        <_>
          <internalNodes>
            0 -1 80 -6.3185133039951324e-03</internalNodes>
          <leafValues>
            4.0129095315933228e-01 -3.1831249594688416e-01</leafValues></_></weakClassifiers></_>
    <!-- stage 4 -->
    <_>
      <maxWeakCount>8</maxWeakCount>
      <stageThreshold>-1.5063086748123169e+00</stageThreshold>
      <weakClassifiers>
        <_>
          <internalNodes>
            0 -1 21 1.3406297191977501e-02</internalNodes>
          <leafValues>
            -7.3985677957534790e-01 7.9310345649719238e-01</leafValues></_>
        <_>
          <internalNodes>
            0 -1 89 1.3410095125436783e-02</internalNodes>
          <leafValues>
            -4.9608793854713440e-01 4.3401554226875305e-01</leafValues></_>
        <_>
          <internalNodes>
            0 -1 57 1.8473931122571230e-03</internalNodes>
          <leafValues>
            -3.4455433487892151e-01 4.4905805587768555e-01</leafValues></_>
        <_>
          <internalNodes>
            0 -1 124 -1.1797805782407522e-03</internalNodes>
          <leafValues>
            5.5984109640121460e-01 -2.9182261228561401e-01</leafValues></_>
        <_>
          <internalNodes>
            0 -1 86 -4.7294431715272367e-04</internalNodes>
          <leafValues>
            5.2477169036865234e-01 -3.2475376129150391e-01</leafValues></_>
        <_>
          <internalNodes>
            0 -1 88 -1.3041295111179352e-02</internalNodes>
          <leafValues>
            3.2084202766418457e-01 -4.5041036605834961e-01</leafValues></_>
        <_>
          <internalNodes>
            0 -1 28 3.4767243050737306e-05</internalNodes>
          <leafValues>
            2.3299315571784973e-01 -6.5601235628128052e-01</leafValues></_>
        <_>
          <internalNodes>
            0 -1 84 8.4211900830268860e-03</internalNodes>
          <leafValues>
            1.5405167639255524e-01 -7.4316424131393433e-01</leafValues></_></weakClassifiers></_>
    <!-- stage 5 -->
    <_>
      <maxWeakCount>11</maxWeakCount>
      <stageThreshold>-1.5572186708450317e+00</stageThreshold>
      <weakClassifiers>
        <_>
          <internalNodes>
            0 -1 8 4.8367910087108612e-02</internalNodes>
          <leafValues>
            -7.5275397300720215e-01 3.6000001430511475e-01</leafValues></_>
        <_>
          <internalNodes>
            0 -1 108 6.5788635984063148e-03</internalNodes>
          <leafValues>
            -4.7024232149124146e-01 1.9063873589038849e-01</leafValues></_>
        <_>
          <internalNodes>
            0 -1 141 7.0663052611052990e-04</internalNodes>
          <leafValues>
            2.3898451030254364e-01 -4.9252095818519592e-01</leafValues></_>
        <_>
          <internalNodes>
            0 -1 139 -3.8601239211857319e-03</internalNodes>
          <leafValues>
            -6.4670479297637939e-01 2.2457028925418854e-01</leafValues></_>
        <_>
          <internalNodes>
            0 -1 127 -1.2849062681198120e-02</internalNodes>
          <leafValues>
            5.2797764539718628e-01 -2.9173535108566284e-01</leafValues></_>
        <_>
          <internalNodes>
            0 -1 97 -1.7308309674263000e-02</internalNodes>
          <leafValues>
            4.6985507011413574e-01 -2.7991822361946106e-01</leafValues></_>
        <_>
          <internalNodes>
            0 -1 62 -1.0753249516710639e-03</internalNodes>
          <leafValues>
            3.5212585330009460e-01 -3.6340340971946716e-01</leafValues></_>
        <_>
          <internalNodes>
            0 -1 44 -9.4660685863345861e-04</internalNodes>
          <leafValues>
            -5.0040096044540405e-01 2.5305789709091187e-01</leafValues></_>
        <_>
          <internalNodes>
            0 -1 38 2.1630242466926575e-02</internalNodes>
          <leafValues>
            -1.9624377787113190e-01 6.0629588365554810e-01</leafValues></_>
        <_>
          <internalNodes>
            0 -1 56 -1.9029356772080064e-03</internalNodes>
          <leafValues>
            4.7674712538719177e-01 -2.4225282669067383e-01</leafValues></_>
        <_>
          <internalNodes>
            0 -1 53 -9.3634403310716152e-04</internalNodes>
          <leafValues>
            5.1484471559524536e-01 -2.2665315866470337e-01</leafValues></_></weakClassifiers></_>
    <!-- stage 6 -->
    <_>
      <maxWeakCount>10</maxWeakCount>
      <stageThreshold>-1.6588726043701172e+00</stageThreshold>
      <weakClassifiers>
        <_>
          <internalNodes>
            0 -1 1 1.1299787089228630e-02</internalNodes>
          <leafValues>
            -7.4247896671295166e-01 5.5555558204650879e-01</leafValues></_>
        <_>
          <internalNodes>
            0 -1 70 4.5877817319706082e-04</internalNodes>
          <leafValues>
            6.3744746148586273e-02 -6.3963240385055542e-01</leafValues></_>
        <_>
          <internalNodes>
            0 -1 13 2.8087676037102938e-04</internalNodes>
          <leafValues>
            1.5673801302909851e-01 -5.8077132701873779e-01</leafValues></_>
        <_>
          <internalNodes>
            0 -1 20 7.0616886951029301e-03</internalNodes>
          <leafValues>
            1.5176671743392944e-01 -8.7177222967147827e-01</leafValues></_>
        <_>
          <internalNodes>
            0 -1 22 1.3875071890652180e-03</internalNodes>
          <leafValues>
            -3.0390971899032593e-01 3.6810716986656189e-01</leafValues></_>
        <_>
          <internalNodes>
            0 -1 136 -1.6114171012304723e-04</internalNodes>
          <leafValues>
            -6.6156482696533203e-01 1.8711216747760773e-01</leafValues></_>
        <_>
          <internalNodes>
            0 -1 96 1.2546597048640251e-02</internalNodes>
          <leafValues>
            -2.4305602908134460e-01 5.0554686784744263e-01</leafValues></_>
        <_>
          <internalNodes>
            0 -1 74 3.7115566432476044e-02</internalNodes>
          <leafValues>
            -1.6685967147350311e-01 6.9354575872421265e-01</leafValues></_>
        <_>
          <internalNodes>
            0 -1 99 -1.2904005125164986e-03</internalNodes>
          <leafValues>
            4.0246233344078064e-01 -2.7966126799583435e-01</leafValues></_>
        <_>
          <internalNodes>
            0 -1 134 -1.3053981820121408e-04</internalNodes>
          <leafValues>
            -4.5765951275825500e-01 2.5524079799652100e-01</leafValues></_></weakClassifiers></_>
    <!-- stage 7 -->
    <_>
      <maxWeakCount>8</maxWeakCount>
      <stageThreshold>-1.3967595100402832e+00</stageThreshold>
      <weakClassifiers>
        <_>
          <internalNodes>
            0 -1 3 1.8533976748585701e-02</internalNodes>
          <leafValues>
            -7.3684209585189819e-01 6.1290323734283447e-01</leafValues></_>
        <_>
          <internalNodes>
            0 -1 17 1.5427417121827602e-02</internalNodes>
          <leafValues>
            -3.2163116335868835e-01 4.9995592236518860e-01</leafValues></_>
        <_>
          <internalNodes>
            0 -1 46 1.5762442490085959e-04</internalNodes>
          <leafValues>
            2.1800932288169861e-01 -5.3324025869369507e-01</leafValues></_>
        <_>
          <internalNodes>
            0 -1 94 -1.8033217638731003e-03</internalNodes>
          <leafValues>
            2.4815842509269714e-01 -3.9770001173019409e-01</leafValues></_>
        <_>
          <internalNodes>
            0 -1 90 -7.5750783085823059e-02</internalNodes>
          <leafValues>
            -7.3920148611068726e-01 1.8544659018516541e-01</leafValues></_>
        <_>
          <internalNodes>
            0 -1 83 -9.1734249144792557e-03</internalNodes>
          <leafValues>
            5.9554409980773926e-01 -1.8848459422588348e-01</leafValues></_>
        <_>
          <internalNodes>
            0 -1 77 -2.2563408128917217e-03</internalNodes>
          <leafValues>
            2.4033471941947937e-01 -4.2148083448410034e-01</leafValues></_>
        <_>
          <internalNodes>
            0 -1 18 1.0831933468580246e-02</internalNodes>
          <leafValues>
            -2.0662641525268555e-01 4.7437542676925659e-01</leafValues></_></weakClassifiers></_>
    <!-- stage 8 -->
    <_>
      <maxWeakCount>11</maxWeakCount>
      <stageThreshold>-1.5332891941070557e+00</stageThreshold>
      <weakClassifiers>
        <_>
          <internalNodes>
            0 -1 119 -1.2735551595687866e-01</internalNodes>
          <leafValues>
            2.0000000298023224e-01 -7.5464683771133423e-01</leafValues></_>
        <_>
          <internalNodes>
            0 -1 114 -2.2444708738476038e-03</internalNodes>
          <leafValues>
            2.6195442676544189e-01 -4.2019525170326233e-01</leafValues></_>
        <_>
          <internalNodes>
            0 -1 75 3.7760101258754730e-02</internalNodes>
          <leafValues>
            1.0995785146951675e-01 -8.6515063047409058e-01</leafValues></_>
        <_>
          <internalNodes>
            0 -1 30 -4.4536069035530090e-03</internalNodes>
          <leafValues>
            -5.2088755369186401e-01 2.0643553137779236e-01</leafValues></_>
        <_>
          <internalNodes>
            0 -1 9 -5.0643244758248329e-03</internalNodes>
          <leafValues>
            3.5923275351524353e-01 -2.8051143884658813e-01</leafValues></_>
        <_>
          <internalNodes>
            0 -1 121 -9.7353197634220123e-03</internalNodes>
          <leafValues>
            3.6055493354797363e-01 -2.6298135519027710e-01</leafValues></_>
        <_>
          <internalNodes>
            0 -1 118 -2.8234637284185737e-05</internalNodes>
          <leafValues>
            -4.8620602488517761e-01 2.3699328303337097e-01</leafValues></_>
        <_>
          <internalNodes>
            0 -1 82 3.3425367437303066e-03</internalNodes>
          <leafValues>
            -1.4601056277751923e-01 7.9532629251480103e-01</leafValues></_>
        <_>
          <internalNodes>
            0 -1 129 9.0436218306422234e-03</internalNodes>
          <leafValues>
            1.2192284315824509e-01 -9.7736030817031860e-01</leafValues></_>
        <_>
          <internalNodes>
            0 -1 87 1.3026027940213680e-02</internalNodes>
          <leafValues>
            1.2921912968158722e-01 -6.5306431055068970e-01</leafValues></_>
        <_>
          <internalNodes>
            0 -1 39 -2.8762925416231155e-02</internalNodes>
          <leafValues>
            3.7404501438140869e-01 -2.8623044490814209e-01</leafValues></_></weakClassifiers></_>
    <!-- stage 9 -->
    <_>
      <maxWeakCount>9</maxWeakCount>
      <stageThreshold>-1.3465406894683838e+00</stageThreshold>
      <weakClassifiers>
        <_>
          <internalNodes>
            0 -1 128 -2.7773171663284302e-02</internalNodes>
          <leafValues>
            1.1475409567356110e-01 -7.4937963485717773e-01</leafValues></_>
        <_>
          <internalNodes>
            0 -1 0 -2.5708082830533385e-04</internalNodes>
          <leafValues>
            -6.2248688936233521e-01 6.9309979677200317e-02</leafValues></_>
        <_>
          <internalNodes>
            0 -1 2 2.6347492821514606e-03</internalNodes>
          <leafValues>
            1.3924200832843781e-01 -5.8657580614089966e-01</leafValues></_>
        <_>
          <internalNodes>
            0 -1 93 1.6478460747748613e-03</internalNodes>
          <leafValues>
            -2.6868277788162231e-01 3.8423213362693787e-01</leafValues></_>
        <_>
          <internalNodes>
            0 -1 32 -2.2675771266222000e-02</internalNodes>
          <leafValues>
            -8.2329398393630981e-01 1.3355280458927155e-01</leafValues></_>
        <_>
          <internalNodes>
            0 -1 29 -1.4314698055386543e-02</internalNodes>
          <leafValues>
            -9.3506652116775513e-01 9.2328220605850220e-02</leafValues></_>
        <_>
          <internalNodes>
            0 -1 105 3.2297248253598809e-05</internalNodes>
          <leafValues>
            -3.6989918351173401e-01 2.3234349489212036e-01</leafValues></_>
        <_>
          <internalNodes>
            0 -1 48 3.2811039127409458e-03</internalNodes>
          <leafValues>
            2.0557796955108643e-01 -5.4400086402893066e-01</leafValues></_>
        <_>
          <internalNodes>
            0 -1 100 -6.3301395857706666e-04</internalNodes>
          <leafValues>
            3.9947384595870972e-01 -2.4398598074913025e-01</leafValues></_></weakClassifiers></_>
    <!-- stage 10 -->
    <_>
      <maxWeakCount>12</maxWeakCount>
      <stageThreshold>-1.4318151473999023e+00</stageThreshold>
      <weakClassifiers>
        <_>
          <internalNodes>
            0 -1 4 2.3891411721706390e-02</internalNodes>
          <leafValues>
            -7.3237752914428711e-01 5.3333336114883423e-01</leafValues></_>
        <_>
          <internalNodes>
            0 -1 91 3.4854605328291655e-03</internalNodes>
          <leafValues>
            -3.6513879895210266e-01 3.2015928626060486e-01</leafValues></_>
        <_>
          <internalNodes>
            0 -1 19 -2.1602130800602026e-05</internalNodes>
          <leafValues>
            -4.7003817558288574e-01 1.8288910388946533e-01</leafValues></_>
        <_>
          <internalNodes>
            0 -1 111 -6.7450065398588777e-04</internalNodes>
          <leafValues>
            5.2089738845825195e-01 -1.7242574691772461e-01</leafValues></_>
        <_>
          <internalNodes>
            0 -1 112 -7.9730404540896416e-03</internalNodes>
          <leafValues>
            5.0646829605102539e-01 -1.6457282006740570e-01</leafValues></_>
        <_>
          <internalNodes>
            0 -1 103 -3.4133810549974442e-03</internalNodes>
          <leafValues>
            3.3903032541275024e-01 -3.2156378030776978e-01</leafValues></_>
        <_>
          <internalNodes>
            0 -1 140 2.9871986043872312e-05</internalNodes>
          <leafValues>
            2.2780737280845642e-01 -4.6857327222824097e-01</leafValues></_>
        <_>
          <internalNodes>
            0 -1 73 -6.4963228396663908e-06</internalNodes>
          <leafValues>
            2.6605141162872314e-01 -3.5110482573509216e-01</leafValues></_>
        <_>
          <internalNodes>
            0 -1 71 -4.4058002531528473e-02</internalNodes>
          <leafValues>
            -8.6357301473617554e-01 1.1616198718547821e-01</leafValues></_>
        <_>
          <internalNodes>
            0 -1 25 1.3650167733430862e-02</internalNodes>
          <leafValues>
            -2.3071464896202087e-01 4.2149001359939575e-01</leafValues></_>
        <_>
          <internalNodes>
            0 -1 54 -4.4418273319024593e-05</internalNodes>
          <leafValues>
            -5.3618657588958740e-01 2.0350566506385803e-01</leafValues></_>
        <_>
          <internalNodes>
            0 -1 55 -1.2302473187446594e-03</internalNodes>
          <leafValues>
            2.9825490713119507e-01 -3.3625090122222900e-01</leafValues></_></weakClassifiers></_>
    <!-- stage 11 -->
    <_>
      <maxWeakCount>13</maxWeakCount>
      <stageThreshold>-1.7018344402313232e+00</stageThreshold>
      <weakClassifiers>
        <_>
          <internalNodes>
            0 -1 65 -7.3992893099784851e-02</internalNodes>
          <leafValues>
            1.5999999642372131e-01 -7.4051409959793091e-01</leafValues></_>
        <_>
          <internalNodes>
            0 -1 27 8.4715102275367826e-06</internalNodes>
          <leafValues>
            4.7939866781234741e-02 -5.6097245216369629e-01</leafValues></_>
        <_>
          <internalNodes>
            0 -1 27 -1.3448618119582534e-04</internalNodes>
          <leafValues>
            -4.8169511556625366e-01 1.7318898439407349e-01</leafValues></_>
        <_>
          <internalNodes>
            0 -1 130 1.1570591479539871e-02</internalNodes>
          <leafValues>
            -1.0224195569753647e-01 8.4284645318984985e-01</leafValues></_>
        <_>
          <internalNodes>
            0 -1 122 -2.2188154980540276e-03</internalNodes>
          <leafValues>
            4.8444810509681702e-01 -1.7210689187049866e-01</leafValues></_>
        <_>
          <internalNodes>
            0 -1 37 2.9488268774002790e-04</internalNodes>
          <leafValues>
            2.1865566074848175e-01 -4.3979889154434204e-01</leafValues></_>
        <_>
          <internalNodes>
            0 -1 76 6.8165827542543411e-04</internalNodes>
          <leafValues>
            -1.5735477209091187e-01 5.1200938224792480e-01</leafValues></_>
        <_>
          <internalNodes>
            0 -1 11 1.4002047479152679e-02</internalNodes>
          <leafValues>
            -1.8055444955825806e-01 4.7503069043159485e-01</leafValues></_>
        <_>
          <internalNodes>
            0 -1 107 -5.4035033099353313e-04</internalNodes>
          <leafValues>
            4.1586405038833618e-01 -2.0099303126335144e-01</leafValues></_>
        <_>
          <internalNodes>
            0 -1 45 3.6267074756324291e-04</internalNodes>
          <leafValues>
            1.9091643393039703e-01 -5.2289104461669922e-01</leafValues></_>
        <_>
          <internalNodes>
            0 -1 110 6.9494219496846199e-03</internalNodes>
          <leafValues>
            9.8284304141998291e-02 -8.2112085819244385e-01</leafValues></_>
        <_>
          <internalNodes>
            0 -1 43 -2.3456483613699675e-03</internalNodes>
          <leafValues>
            -5.6501674652099609e-01 1.4083033800125122e-01</leafValues></_>
        <_>
          <internalNodes>
            0 -1 49 -1.9162302487529814e-04</internalNodes>
          <leafValues>
            2.6957428455352783e-01 -3.3089211583137512e-01</leafValues></_></weakClassifiers></_>
    <!-- stage 12 -->
    <_>
      <maxWeakCount>11</maxWeakCount>
      <stageThreshold>-1.5035432577133179e+00</stageThreshold>
      <weakClassifiers>
        <_>
          <internalNodes>
            0 -1 101 1.4883711002767086e-02</internalNodes>
          <leafValues>
            -7.2901678085327148e-01 3.3333334326744080e-01</leafValues></_>
        <_>
          <internalNodes>
            0 -1 15 8.7566822767257690e-03</internalNodes>
          <leafValues>
            -3.2243168354034424e-01 5.2583891153335571e-01</leafValues></_>
        <_>
          <internalNodes>
            0 -1 113 7.2982511483132839e-04</internalNodes>
          <leafValues>
            -2.6614421606063843e-01 3.0689737200737000e-01</leafValues></_>
        <_>
          <internalNodes>
            0 -1 7 -2.4778735637664795e-01</internalNodes>
          <leafValues>
            -9.1468018293380737e-01 9.1919951140880585e-02</leafValues></_>
        <_>
          <internalNodes>
            0 -1 12 2.8484971262514591e-03</internalNodes>
          <leafValues>
            1.5855379402637482e-01 -5.4614979028701782e-01</leafValues></_>
        <_>
          <internalNodes>
            0 -1 31 1.7050292342901230e-02</internalNodes>
          <leafValues>
            -1.4587122201919556e-01 6.3547414541244507e-01</leafValues></_>
        <_>
          <internalNodes>
            0 -1 85 -5.3339786827564240e-03</internalNodes>
          <leafValues>
            4.4991579651832581e-01 -2.2244161367416382e-01</leafValues></_>
        <_>
          <internalNodes>
            0 -1 68 6.1796559020876884e-03</internalNodes>
          <leafValues>
            -2.0244483649730682e-01 4.4401481747627258e-01</leafValues></_>
        <_>
          <internalNodes>
            0 -1 59 -3.7440552841871977e-04</internalNodes>
          <leafValues>
            -7.5262111425399780e-01 1.1832102388143539e-01</leafValues></_>
        <_>
          <internalNodes>
            0 -1 72 -9.4395058113150299e-05</internalNodes>
          <leafValues>
            2.4443507194519043e-01 -3.4698659181594849e-01</leafValues></_>
        <_>
          <internalNodes>
            0 -1 66 6.9691881537437439e-02</internalNodes>
          <leafValues>
            -1.3882596790790558e-01 6.1526703834533691e-01</leafValues></_></weakClassifiers></_>
    <!-- stage 13 -->
    <_>
      <maxWeakCount>10</maxWeakCount>
      <stageThreshold>-1.2953369617462158e+00</stageThreshold>
      <weakClassifiers>
        <_>
          <internalNodes>
            0 -1 42 9.5829628407955170e-02</internalNodes>
          <leafValues>
            -7.4106043577194214e-01 7.1428574621677399e-02</leafValues></_>
        <_>
          <internalNodes>
            0 -1 69 9.1359142970759422e-05</internalNodes>
          <leafValues>
            -7.0026428438723087e-03 -6.1809432506561279e-01</leafValues></_>
        <_>
          <internalNodes>
            0 -1 6 6.2190000899136066e-03</internalNodes>
          <leafValues>
            -3.1003254652023315e-01 2.8859981894493103e-01</leafValues></_>
        <_>
          <internalNodes>
            0 -1 123 6.7052384838461876e-04</internalNodes>
          <leafValues>
            -2.5161343812942505e-01 3.3027389645576477e-01</leafValues></_>
        <_>
          <internalNodes>
            0 -1 120 -3.5344148054718971e-03</internalNodes>
          <leafValues>
            3.0509150028228760e-01 -2.9140737652778625e-01</leafValues></_>
        <_>
          <internalNodes>
            0 -1 14 3.1631781894247979e-05</internalNodes>
          <leafValues>
            1.7354865372180939e-01 -5.5695891380310059e-01</leafValues></_>
        <_>
          <internalNodes>
            0 -1 79 -4.0604574605822563e-03</internalNodes>
          <leafValues>
            -7.5783759355545044e-01 9.0683162212371826e-02</leafValues></_>
        <_>
          <internalNodes>
            0 -1 98 -2.9644116875715554e-04</internalNodes>
          <leafValues>
            3.6872115731239319e-01 -2.2791138291358948e-01</leafValues></_>
        <_>
          <internalNodes>
            0 -1 138 -3.5319998860359192e-03</internalNodes>
          <leafValues>
            -5.1494157314300537e-01 1.5362994372844696e-01</leafValues></_>
        <_>
          <internalNodes>
            0 -1 52 2.7959828730672598e-03</internalNodes>
          <leafValues>
            -2.2878156602382660e-01 4.8205775022506714e-01</leafValues></_></weakClassifiers></_>
    <!-- stage 14 -->
    <_>
      <maxWeakCount>11</maxWeakCount>
      <stageThreshold>-1.3878276348114014e+00</stageThreshold>
      <weakClassifiers>
        <_>
          <internalNodes>
            0 -1 117 -4.5391164720058441e-02</internalNodes>
          <leafValues>
            7.3333334922790527e-01 -7.1361500024795532e-01</leafValues></_>
        <_>
          <internalNodes>
            0 -1 16 4.0681200334802270e-04</internalNodes>
          <leafValues>
            -4.1543132066726685e-01 1.2365148216485977e-01</leafValues></_>
        <_>
          <internalNodes>
            0 -1 106 -1.3070876593701541e-04</internalNodes>
          <leafValues>
            -6.6755431890487671e-01 1.2679246068000793e-01</leafValues></_>
        <_>
          <internalNodes>
            0 -1 50 4.7626592218875885e-02</internalNodes>
          <leafValues>
            1.7112615704536438e-01 -5.7284981012344360e-01</leafValues></_>
        <_>
          <internalNodes>
            0 -1 63 6.9578585680574179e-04</internalNodes>
          <leafValues>
            -3.4253624081611633e-01 2.7010205388069153e-01</leafValues></_>
        <_>
          <internalNodes>
            0 -1 58 8.5558494902215898e-06</internalNodes>
          <leafValues>
            1.8463620543479919e-01 -4.5692634582519531e-01</leafValues></_>
        <_>
          <internalNodes>
            0 -1 47 4.2037134990096092e-03</internalNodes>
          <leafValues>
            -1.4319372177124023e-01 6.5725040435791016e-01</leafValues></_>
        <_>
          <internalNodes>
            0 -1 104 -1.6700523701729253e-05</internalNodes>
          <leafValues>
            2.8949818015098572e-01 -3.1806215643882751e-01</leafValues></_>
        <_>
          <internalNodes>
            0 -1 24 6.3932728953659534e-03</internalNodes>
          <leafValues>
            7.7621467411518097e-02 -9.7992110252380371e-01</leafValues></_>
        <_>
          <internalNodes>
            0 -1 102 1.5238586347550154e-03</internalNodes>
          <leafValues>
            -4.0943837165832520e-01 1.8744611740112305e-01</leafValues></_>
        <_>
          <internalNodes>
            0 -1 78 -5.5642262101173401e-02</internalNodes>
          <leafValues>
            -7.0769220590591431e-01 1.0174728929996490e-01</leafValues></_></weakClassifiers></_></stages>
  <features>
    <_>
      <rects>
        <_>
          0 0 1 12 -1.</_>
        <_>
          0 6 1 6 2.</_></rects>
      <tilted>0</tilted></_>
    <_>
      <rects>
        <_>
          0 0 2 10 -1.</_>
        <_>
          1 0 1 10 2.</_></rects>
      <tilted>0</tilted></_>
    <_>
      <rects>
        <_>
          0 0 1 24 -1.</_>
        <_>
          0 12 1 12 2.</_></rects>
      <tilted>0</tilted></_>
    <_>
      <rects>
        <_>
          0 0 2 14 -1.</_>
        <_>
          1 0 1 14 2.</_></rects>
      <tilted>0</tilted></_>
    <_>
      <rects>
        <_>
          0 0 3 22 -1.</_>
        <_>
          1 0 1 22 3.</_></rects>
      <tilted>0</tilted></_>
    <_>
      <rects>
        <_>
          0 0 4 20 -1.</_>
        <_>
          2 0 2 20 2.</_></rects>
      <tilted>0</tilted></_>
    <_>
      <rects>
        <_>
          0 0 15 5 -1.</_>
        <_>
          5 0 5 5 3.</_></rects>
      <tilted>0</tilted></_>
    <_>
      <rects>
        <_>
          0 0 30 16 -1.</_>
        <_>
          15 0 15 16 2.</_></rects>
      <tilted>0</tilted></_>
    <_>
      <rects>
        <_>
          0 2 4 20 -1.</_>
        <_>
          2 2 2 20 2.</_></rects>
      <tilted>0</tilted></_>
    <_>
      <rects>
        <_>
          0 2 10 6 -1.</_>
        <_>
          0 2 5 3 2.</_>
        <_>
          5 5 5 3 2.</_></rects>
      <tilted>0</tilted></_>
    <_>
      <rects>
        <_>
          0 2 7 22 -1.</_>
        <_>
          0 13 7 11 2.</_></rects>
      <tilted>0</tilted></_>
    <_>
      <rects>
        <_>
          0 4 8 5 -1.</_>
        <_>
          4 4 4 5 2.</_></rects>
      <tilted>0</tilted></_>
    <_>
      <rects>
        <_>
          0 5 2 18 -1.</_>
        <_>
          0 14 2 9 2.</_></rects>
      <tilted>0</tilted></_>
    <_>
      <rects>
        <_>
          0 6 1 12 -1.</_>
        <_>
          0 10 1 4 3.</_></rects>
      <tilted>0</tilted></_>
    <_>
      <rects>
        <_>
          0 7 1 2 -1.</_>
        <_>
          0 8 1 1 2.</_></rects>
      <tilted>0</tilted></_>
    <_>
      <rects>
        <_>
          0 7 6 3 -1.</_>
        <_>
          2 7 2 3 3.</_></rects>
      <tilted>0</tilted></_>
    <_>
      <rects>
        <_>
          0 7 8 4 -1.</_>
        <_>
          4 7 4 4 2.</_></rects>
      <tilted>0</tilted></_>
    <_>
      <rects>
        <_>
          0 7 10 2 -1.</_>
        <_>
          5 7 5 2 2.</_></rects>
      <tilted>0</tilted></_>
    <_>
      <rects>
        <_>
          0 8 8 5 -1.</_>
        <_>
          4 8 4 5 2.</_></rects>
      <tilted>0</tilted></_>
    <_>
      <rects>
        <_>
          0 9 1 2 -1.</_>
        <_>
          0 10 1 1 2.</_></rects>
      <tilted>0</tilted></_>
    <_>
      <rects>
        <_>
          0 9 1 14 -1.</_>
        <_>
          0 16 1 7 2.</_></rects>
      <tilted>0</tilted></_>
    <_>
      <rects>
        <_>
          0 9 2 11 -1.</_>
        <_>
          1 9 1 11 2.</_></rects>
      <tilted>0</tilted></_>
    <_>
      <rects>
        <_>
          0 9 8 1 -1.</_>
        <_>
          4 9 4 1 2.</_></rects>
      <tilted>0</tilted></_>
    <_>
      <rects>
        <_>
          0 11 1 8 -1.</_>
        <_>
          0 15 1 4 2.</_></rects>
      <tilted>0</tilted></_>
    <_>
      <rects>
        <_>
          0 12 1 12 -1.</_>
        <_>
          0 18 1 6 2.</_></rects>
      <tilted>0</tilted></_>
    <_>
      <rects>
        <_>
          0 12 12 8 -1.</_>
        <_>
          6 12 6 8 2.</_></rects>
      <tilted>0</tilted></_>
    <_>
      <rects>
        <_>
          0 13 1 6 -1.</_>
        <_>
          0 15 1 2 3.</_></rects>
      <tilted>0</tilted></_>
    <_>
      <rects>
        <_>
          0 17 1 6 -1.</_>
        <_>
          0 19 1 2 3.</_></rects>
      <tilted>0</tilted></_>
    <_>
      <rects>
        <_>
          0 21 1 2 -1.</_>
        <_>
          0 22 1 1 2.</_></rects>
      <tilted>0</tilted></_>
    <_>
      <rects>
        <_>
          0 21 12 3 -1.</_>
        <_>
          6 21 6 3 2.</_></rects>
      <tilted>0</tilted></_>
    <_>
      <rects>
        <_>
          1 0 1 22 -1.</_>
        <_>
          1 11 1 11 2.</_></rects>
      <tilted>0</tilted></_>
    <_>
      <rects>
        <_>
          1 4 12 2 -1.</_>
        <_>
          7 4 6 2 2.</_></rects>
      <tilted>0</tilted></_>
    <_>
      <rects>
        <_>
          1 5 3 16 -1.</_>
        <_>
          1 13 3 8 2.</_></rects>
      <tilted>0</tilted></_>
    <_>
      <rects>
        <_>
          1 23 4 1 -1.</_>
        <_>
          3 23 2 1 2.</_></rects>
      <tilted>0</tilted></_>
    <_>
      <rects>
        <_>
          2 0 26 1 -1.</_>
        <_>
          15 0 13 1 2.</_></rects>
      <tilted>0</tilted></_>
    <_>
      <rects>
        <_>
          3 0 4 2 -1.</_>
        <_>
          3 0 2 1 2.</_>
        <_>
          5 1 2 1 2.</_></rects>
      <tilted>0</tilted></_>
    <_>
      <rects>
        <_>
          3 0 9 3 -1.</_>
        <_>
          3 1 9 1 3.</_></rects>
      <tilted>0</tilted></_>
    <_>
      <rects>
        <_>
          3 3 2 19 -1.</_>
        <_>
          4 3 1 19 2.</_></rects>
      <tilted>0</tilted></_>
    <_>
      <rects>
        <_>
          3 4 8 9 -1.</_>
        <_>
          7 4 4 9 2.</_></rects>
      <tilted>0</tilted></_>
    <_>
      <rects>
        <_>
          3 4 8 15 -1.</_>
        <_>
          3 9 8 5 3.</_></rects>
      <tilted>0</tilted></_>
    <_>
      <rects>
        <_>
          3 5 10 2 -1.</_>
        <_>
          3 5 5 1 2.</_>
        <_>
          8 6 5 1 2.</_></rects>
      <tilted>0</tilted></_>
    <_>
      <rects>
        <_>
          3 15 29 9 -1.</_>
        <_>
          3 18 29 3 3.</_></rects>
      <tilted>0</tilted></_>
    <_>
      <rects>
        <_>
          3 18 29 6 -1.</_>
        <_>
          3 20 29 2 3.</_></rects>
      <tilted>0</tilted></_>
    <_>
      <rects>
        <_>
          3 23 16 1 -1.</_>
        <_>
          11 23 8 1 2.</_></rects>
      <tilted>0</tilted></_>
    <_>
      <rects>
        <_>
          3 23 28 1 -1.</_>
        <_>
          17 23 14 1 2.</_></rects>
      <tilted>0</tilted></_>
    <_>
      <rects>
        <_>
          4 0 2 6 -1.</_>
        <_>
          5 0 1 6 2.</_></rects>
      <tilted>0</tilted></_>
    <_>
      <rects>
        <_>
          4 0 2 23 -1.</_>
        <_>
          5 0 1 23 2.</_></rects>
      <tilted>0</tilted></_>
    <_>
      <rects>
        <_>
          4 0 6 2 -1.</_>
        <_>
          4 1 6 1 2.</_></rects>
      <tilted>0</tilted></_>
    <_>
      <rects>
        <_>
          4 0 32 1 -1.</_>
        <_>
          20 0 16 1 2.</_></rects>
      <tilted>0</tilted></_>
    <_>
      <rects>
        <_>
          4 1 2 14 -1.</_>
        <_>
          4 1 1 7 2.</_>
        <_>
          5 8 1 7 2.</_></rects>
      <tilted>0</tilted></_>
    <_>
      <rects>
        <_>
          4 2 16 20 -1.</_>
        <_>
          4 2 8 10 2.</_>
        <_>
          12 12 8 10 2.</_></rects>
      <tilted>0</tilted></_>
    <_>
      <rects>
        <_>
          4 10 7 3 -1.</_>
        <_>
          4 11 7 1 3.</_></rects>
      <tilted>0</tilted></_>
    <_>
      <rects>
        <_>
          4 11 12 1 -1.</_>
        <_>
          10 11 6 1 2.</_></rects>
      <tilted>0</tilted></_>
    <_>
      <rects>
        <_>
          4 18 4 3 -1.</_>
        <_>
          4 19 4 1 3.</_></rects>
      <tilted>0</tilted></_>
    <_>
      <rects>
        <_>
          4 22 6 2 -1.</_>
        <_>
          6 22 2 2 3.</_></rects>
      <tilted>0</tilted></_>
    <_>
      <rects>
        <_>
          5 5 2 19 -1.</_>
        <_>
          6 5 1 19 2.</_></rects>
      <tilted>0</tilted></_>
    <_>
      <rects>
        <_>
          5 8 2 9 -1.</_>
        <_>
          6 8 1 9 2.</_></rects>
      <tilted>0</tilted></_>
    <_>
      <rects>
        <_>
          5 13 4 6 -1.</_>
        <_>
          5 16 4 3 2.</_></rects>
      <tilted>0</tilted></_>
    <_>
      <rects>
        <_>
          5 23 4 1 -1.</_>
        <_>
          7 23 2 1 2.</_></rects>
      <tilted>0</tilted></_>
    <_>
      <rects>
        <_>
          6 0 3 1 -1.</_>
        <_>
          7 0 1 1 3.</_></rects>
      <tilted>0</tilted></_>
    <_>
      <rects>
        <_>
          6 0 8 6 -1.</_>
        <_>
          6 2 8 2 3.</_></rects>
      <tilted>0</tilted></_>
    <_>
      <rects>
        <_>
          6 3 6 4 -1.</_>
        <_>
          6 3 3 2 2.</_>
        <_>
          9 5 3 2 2.</_></rects>
      <tilted>0</tilted></_>
    <_>
      <rects>
        <_>
          6 10 9 2 -1.</_>
        <_>
          9 10 3 2 3.</_></rects>
      <tilted>0</tilted></_>
    <_>
      <rects>
        <_>
          6 18 14 2 -1.</_>
        <_>
          6 19 14 1 2.</_></rects>
      <tilted>0</tilted></_>
    <_>
      <rects>
        <_>
          6 18 25 6 -1.</_>
        <_>
          6 20 25 2 3.</_></rects>
      <tilted>0</tilted></_>
    <_>
      <rects>
        <_>
          6 20 26 4 -1.</_>
        <_>
          6 22 26 2 2.</_></rects>
      <tilted>0</tilted></_>
    <_>
      <rects>
        <_>
          7 0 24 10 -1.</_>
        <_>
          7 5 24 5 2.</_></rects>
      <tilted>0</tilted></_>
    <_>
      <rects>
        <_>
          7 11 2 7 -1.</_>
        <_>
          8 11 1 7 2.</_></rects>
      <tilted>0</tilted></_>
    <_>
      <rects>
        <_>
          7 16 4 6 -1.</_>
        <_>
          7 18 4 2 3.</_></rects>
      <tilted>0</tilted></_>
    <_>
      <rects>
        <_>
          7 22 8 1 -1.</_>
        <_>
          11 22 4 1 2.</_></rects>
      <tilted>0</tilted></_>
    <_>
      <rects>
        <_>
          7 23 10 1 -1.</_>
        <_>
          12 23 5 1 2.</_></rects>
      <tilted>0</tilted></_>
    <_>
      <rects>
        <_>
          8 3 14 14 -1.</_>
        <_>
          8 3 7 7 2.</_>
        <_>
          15 10 7 7 2.</_></rects>
      <tilted>0</tilted></_>
    <_>
      <rects>
        <_>
          8 10 3 6 -1.</_>
        <_>
          9 10 1 6 3.</_></rects>
      <tilted>0</tilted></_>
    <_>
      <rects>
        <_>
          8 15 2 2 -1.</_>
        <_>
          9 15 1 2 2.</_></rects>
      <tilted>0</tilted></_>
    <_>
      <rects>
        <_>
          9 0 27 4 -1.</_>
        <_>
          9 2 27 2 2.</_></rects>
      <tilted>0</tilted></_>
    <_>
      <rects>
        <_>
          9 6 12 12 -1.</_>
        <_>
          15 6 6 12 2.</_></rects>
      <tilted>0</tilted></_>
    <_>
      <rects>
        <_>
          10 2 1 3 -1.</_>
        <_>
          10 3 1 1 3.</_></rects>
      <tilted>0</tilted></_>
    <_>
      <rects>
        <_>
          10 4 10 6 -1.</_>
        <_>
          10 7 10 3 2.</_></rects>
      <tilted>0</tilted></_>
    <_>
      <rects>
        <_>
          10 6 15 18 -1.</_>
        <_>
          15 6 5 18 3.</_></rects>
      <tilted>0</tilted></_>
    <_>
      <rects>
        <_>
          10 11 12 2 -1.</_>
        <_>
          10 12 12 1 2.</_></rects>
      <tilted>0</tilted></_>
    <_>
      <rects>
        <_>
          10 15 11 6 -1.</_>
        <_>
          10 17 11 2 3.</_></rects>
      <tilted>0</tilted></_>
    <_>
      <rects>
        <_>
          10 17 14 4 -1.</_>
        <_>
          10 19 14 2 2.</_></rects>
      <tilted>0</tilted></_>
    <_>
      <rects>
        <_>
          10 20 2 3 -1.</_>
        <_>
          10 21 2 1 3.</_></rects>
      <tilted>0</tilted></_>
    <_>
      <rects>
        <_>
          10 20 4 4 -1.</_>
        <_>
          10 22 4 2 2.</_></rects>
      <tilted>0</tilted></_>
    <_>
      <rects>
        <_>
          10 23 24 1 -1.</_>
        <_>
          22 23 12 1 2.</_></rects>
      <tilted>0</tilted></_>
    <_>
      <rects>
        <_>
          11 1 6 4 -1.</_>
        <_>
          11 3 6 2 2.</_></rects>
      <tilted>0</tilted></_>
    <_>
      <rects>
        <_>
          11 5 4 3 -1.</_>
        <_>
          11 6 4 1 3.</_></rects>
      <tilted>0</tilted></_>
    <_>
      <rects>
        <_>
          11 9 17 6 -1.</_>
        <_>
          11 12 17 3 2.</_></rects>
      <tilted>0</tilted></_>
    <_>
      <rects>
        <_>
          12 1 18 18 -1.</_>
        <_>
          18 1 6 18 3.</_></rects>
      <tilted>0</tilted></_>
    <_>
      <rects>
        <_>
          13 0 21 6 -1.</_>
        <_>
          13 2 21 2 3.</_></rects>
      <tilted>0</tilted></_>
    <_>
      <rects>
        <_>
          13 3 15 21 -1.</_>
        <_>
          18 3 5 21 3.</_></rects>
      <tilted>0</tilted></_>
    <_>
      <rects>
        <_>
          16 0 7 3 -1.</_>
        <_>
          16 1 7 1 3.</_></rects>
      <tilted>0</tilted></_>
    <_>
      <rects>
        <_>
          16 7 17 12 -1.</_>
        <_>
          16 11 17 4 3.</_></rects>
      <tilted>0</tilted></_>
    <_>
      <rects>
        <_>
          16 16 12 4 -1.</_>
        <_>
          16 16 6 2 2.</_>
        <_>
          22 18 6 2 2.</_></rects>
      <tilted>0</tilted></_>
    <_>
      <rects>
        <_>
          17 0 9 21 -1.</_>
        <_>
          20 0 3 21 3.</_></rects>
      <tilted>0</tilted></_>
    <_>
      <rects>
        <_>
          17 4 8 17 -1.</_>
        <_>
          21 4 4 17 2.</_></rects>
      <tilted>0</tilted></_>
    <_>
      <rects>
        <_>
          17 17 7 6 -1.</_>
        <_>
          17 19 7 2 3.</_></rects>
      <tilted>0</tilted></_>
    <_>
      <rects>
        <_>
          18 3 18 6 -1.</_>
        <_>
          18 6 18 3 2.</_></rects>
      <tilted>0</tilted></_>
    <_>
      <rects>
        <_>
          18 8 1 3 -1.</_>
        <_>
          18 9 1 1 3.</_></rects>
      <tilted>0</tilted></_>
    <_>
      <rects>
        <_>
          18 8 10 4 -1.</_>
        <_>
          18 8 5 2 2.</_>
        <_>
          23 10 5 2 2.</_></rects>
      <tilted>0</tilted></_>
    <_>
      <rects>
        <_>
          19 7 6 2 -1.</_>
        <_>
          19 7 3 1 2.</_>
        <_>
          22 8 3 1 2.</_></rects>
      <tilted>0</tilted></_>
    <_>
      <rects>
        <_>
          19 12 15 1 -1.</_>
        <_>
          24 12 5 1 3.</_></rects>
      <tilted>0</tilted></_>
    <_>
      <rects>
        <_>
          20 3 4 19 -1.</_>
        <_>
          22 3 2 19 2.</_></rects>
      <tilted>0</tilted></_>
    <_>
      <rects>
        <_>
          20 7 15 9 -1.</_>
        <_>
          25 7 5 9 3.</_></rects>
      <tilted>0</tilted></_>
    <_>
      <rects>
        <_>
          21 6 6 8 -1.</_>
        <_>
          23 6 2 8 3.</_></rects>
      <tilted>0</tilted></_>
    <_>
      <rects>
        <_>
          21 16 2 2 -1.</_>
        <_>
          21 17 2 1 2.</_></rects>
      <tilted>0</tilted></_>
    <_>
      <rects>
        <_>
          22 0 2 1 -1.</_>
        <_>
          23 0 1 1 2.</_></rects>
      <tilted>0</tilted></_>
    <_>
      <rects>
        <_>
          22 3 6 2 -1.</_>
        <_>
          22 3 3 1 2.</_>
        <_>
          25 4 3 1 2.</_></rects>
      <tilted>0</tilted></_>
    <_>
      <rects>
        <_>
          22 15 3 9 -1.</_>
        <_>
          22 18 3 3 3.</_></rects>
      <tilted>0</tilted></_>
    <_>
      <rects>
        <_>
          23 0 2 21 -1.</_>
        <_>
          24 0 1 21 2.</_></rects>
      <tilted>0</tilted></_>
    <_>
      <rects>
        <_>
          23 0 3 24 -1.</_>
        <_>
          24 0 1 24 3.</_></rects>
      <tilted>0</tilted></_>
    <_>
      <rects>
        <_>
          24 5 1 3 -1.</_>
        <_>
          24 6 1 1 3.</_></rects>
      <tilted>0</tilted></_>
    <_>
      <rects>
        <_>
          24 5 12 1 -1.</_>
        <_>
          30 5 6 1 2.</_></rects>
      <tilted>0</tilted></_>
    <_>
      <rects>
        <_>
          25 12 2 7 -1.</_>
        <_>
          26 12 1 7 2.</_></rects>
      <tilted>0</tilted></_>
    <_>
      <rects>
        <_>
          25 12 9 2 -1.</_>
        <_>
          28 12 3 2 3.</_></rects>
      <tilted>0</tilted></_>
    <_>
      <rects>
        <_>
          27 0 9 23 -1.</_>
        <_>
          30 0 3 23 3.</_></rects>
      <tilted>0</tilted></_>
    <_>
      <rects>
        <_>
          27 6 9 6 -1.</_>
        <_>
          30 6 3 6 3.</_></rects>
      <tilted>0</tilted></_>
    <_>
      <rects>
        <_>
          27 6 9 8 -1.</_>
        <_>
          30 6 3 8 3.</_></rects>
      <tilted>0</tilted></_>
    <_>
      <rects>
        <_>
          27 19 2 4 -1.</_>
        <_>
          28 19 1 4 2.</_></rects>
      <tilted>0</tilted></_>
    <_>
      <rects>
        <_>
          28 1 8 22 -1.</_>
        <_>
          32 1 4 22 2.</_></rects>
      <tilted>0</tilted></_>
    <_>
      <rects>
        <_>
          28 3 8 9 -1.</_>
        <_>
          32 3 4 9 2.</_></rects>
      <tilted>0</tilted></_>
    <_>
      <rects>
        <_>
          28 5 8 10 -1.</_>
        <_>
          32 5 4 10 2.</_></rects>
      <tilted>0</tilted></_>
    <_>
      <rects>
        <_>
          28 10 6 1 -1.</_>
        <_>
          31 10 3 1 2.</_></rects>
      <tilted>0</tilted></_>
    <_>
      <rects>
        <_>
          28 12 2 4 -1.</_>
        <_>
          28 14 2 2 2.</_></rects>
      <tilted>0</tilted></_>
    <_>
      <rects>
        <_>
          28 18 8 1 -1.</_>
        <_>
          32 18 4 1 2.</_></rects>
      <tilted>0</tilted></_>
    <_>
      <rects>
        <_>
          28 21 6 2 -1.</_>
        <_>
          28 21 3 1 2.</_>
        <_>
          31 22 3 1 2.</_></rects>
      <tilted>0</tilted></_>
    <_>
      <rects>
        <_>
          30 0 6 18 -1.</_>
        <_>
          33 0 3 18 2.</_></rects>
      <tilted>0</tilted></_>
    <_>
      <rects>
        <_>
          30 9 6 13 -1.</_>
        <_>
          33 9 3 13 2.</_></rects>
      <tilted>0</tilted></_>
    <_>
      <rects>
        <_>
          30 15 6 5 -1.</_>
        <_>
          33 15 3 5 2.</_></rects>
      <tilted>0</tilted></_>
    <_>
      <rects>
        <_>
          32 10 1 12 -1.</_>
        <_>
          32 16 1 6 2.</_></rects>
      <tilted>0</tilted></_>
    <_>
      <rects>
        <_>
          33 9 3 11 -1.</_>
        <_>
          34 9 1 11 3.</_></rects>
      <tilted>0</tilted></_>
    <_>
      <rects>
        <_>
          33 17 3 2 -1.</_>
        <_>
          33 18 3 1 2.</_></rects>
      <tilted>0</tilted></_>
    <_>
      <rects>
        <_>
          34 2 1 2 -1.</_>
        <_>
          34 3 1 1 2.</_></rects>
      <tilted>0</tilted></_>
    <_>
      <rects>
        <_>
          34 6 2 10 -1.</_>
        <_>
          34 6 1 5 2.</_>
        <_>
          35 11 1 5 2.</_></rects>
      <tilted>0</tilted></_>
    <_>
      <rects>
        <_>
          34 6 2 12 -1.</_>
        <_>
          34 6 1 6 2.</_>
        <_>
          35 12 1 6 2.</_></rects>
      <tilted>0</tilted></_>
    <_>
      <rects>
        <_>
          34 12 2 6 -1.</_>
        <_>
          34 15 2 3 2.</_></rects>
      <tilted>0</tilted></_>
    <_>
      <rects>
        <_>
          34 13 1 3 -1.</_>
        <_>
          34 14 1 1 3.</_></rects>
      <tilted>0</tilted></_>
    <_>
      <rects>
        <_>
          35 0 1 2 -1.</_>
        <_>
          35 1 1 1 2.</_></rects>
      <tilted>0</tilted></_>
    <_>
      <rects>
        <_>
          35 0 1 18 -1.</_>
        <_>
          35 9 1 9 2.</_></rects>
      <tilted>0</tilted></_>
    <_>
      <rects>
        <_>
          35 0 1 20 -1.</_>
        <_>
          35 10 1 10 2.</_></rects>
      <tilted>0</tilted></_>
    <_>
      <rects>
        <_>
          35 3 1 12 -1.</_>
        <_>
          35 9 1 6 2.</_></rects>
      <tilted>0</tilted></_>
    <_>
      <rects>
        <_>
          35 6 1 16 -1.</_>
        <_>
          35 14 1 8 2.</_></rects>
      <tilted>0</tilted></_></features></cascade>
</opencv_storage>
